3 128
s2:968.80 -0.00041892752 0.000184712 0.003986992 0.0070384946 -0.0072679296 -0.005560007 0.005045994 0.007010147 -0.003918303 -0.0029401341 0.005766019 -0.0011980245 -0.003544229 0.005120353 -0.0037970003 -0.0014187638 0.002247328 0.00077490136 -0.006472824 -0.007381889 0.0057123173 0.003961142 0.005279448 0.0005959887 0.004961633 -0.0026604421 -0.00073937606 0.004506698 -0.0058762794 -0.003075081 -0.0058684237 -0.0007265955 0.0074516553 -0.005718099 -0.0018232567 -0.0015138602 0.0063104974 -0.0046335123 3.5283156e-05 -0.0037138546 -0.007502774 0.003911948 -0.0068434263 -0.0034311134 -2.7421862e-05 -0.00023139175 -0.005985344 0.007511518 0.0038922327 0.007213393 -0.006373373 0.0035123425 -0.0032320907 0.0006441688 0.0066395467 -0.0034860754 0.0035292972 -0.005302313 -0.0027722567 0.0073425844 -0.0012325412 0.00025107153 -0.003234867 -0.0060021 -0.0011781314 0.0019295271 -0.00069377106 0.0043231733 -0.002142951 0.0017656758 0.0042623393 0.006520276 -0.0011357348 -0.0071938615 0.003414494 0.000446707 0.0058139907 -0.00063537713 -0.0020612609 -0.006838288 -0.0006691851 0.0022082524 0.0042198664 0.005509888 -0.0044555636 0.0014522029 0.0047569247 -0.0037484774 -0.0024275472 0.005310648 0.0012745904 0.00014837272 0.002713779 0.00017013866 0.0075147077 0.0039535966 -0.006966711 -0.005501219 0.0007042624 0.004994167 -0.006734131 0.002863858 0.0040545966 0.0044858893 0.00583353 -0.0048184963 0.0008637607 0.0047244392 -0.0022187894 -0.0048230644 -0.00032048672 -0.006538241 -0.00437501 0.005550421 0.0026191715 0.0056450544 0.0053126933 0.005883392 -0.0029602768 -0.0004389109 0.0018346692 -0.003530494 0.0065536965 -0.0077016903 0.0052848756 0.0022768881 -0.0038537746 0.003436084
s1:1840.84 -0.0013590427 0.005243269 0.007785039 -0.0034081591 -0.00046823267 -0.004449717 0.003008455 0.0021770522 0.0053836536 0.004766481 0.0074519506 0.007244857 0.006170366 -0.00546055 -0.0071530193 -0.0002779318 -0.0024217507 0.006167435 0.004639511 -0.0012075491 0.0011804402 0.0013984693 0.0061074775 -0.0074298335 -0.00016057119 0.0027103098 -0.00073357206 0.0065482594 0.0070396746 0.0051066456 -0.00055595394 0.0060237534 -0.006667449 0.002505552 -0.0036234353 -0.003975746 0.0028043892 0.0041955775 0.006069933 -0.004505083 0.005807313 0.005176169 -0.0028982814 -0.0068325326 0.004248021 0.0050857468 -0.0006152736 -0.005242075 -0.005535879 -0.0019508284 0.004018167 -0.0028634667 -0.0073203593 0.0029896405 0.0038159993 -0.0050223153 0.000944186 -0.0016209977 1.9065104e-05 -0.007721491 0.0021031285 -0.0037110206 0.0008497238 -0.0012314254 0.0017161509 -0.006157481 -0.0021227999 0.002080624 0.0041770954 -0.0018683709 -0.007429761 0.0035202177 7.3878095e-05 0.0024041561 -0.005322379 -0.0010745823 0.005991079 0.0057393825 -0.0028697634 0.0020646108 -0.0064977575 0.004848036 -0.0036229081 -0.0024719583 0.0072744973 0.00068233255 0.0058521116 -0.0047453614 0.004031646 0.0077522052 -0.006607337 -0.0040122587 -0.005519404 -0.0037989467 -0.002952003 -0.0066689057 0.006215317 -0.0037843268 0.006580948 0.004111383 -0.0051172078 0.0030920869 0.0042735543 -0.0058019813 -0.0057857186 -0.001933774 -0.006738848 -0.0012356034 -0.0003151819 0.0025778785 0.0011264691 -0.0006886106 -0.004370358 0.0013518482 -0.0007010717 0.005307571 0.0031043673 0.0035386495 0.0011205515 -0.0021092622 -0.0034115724 -0.00080630835 0.0011226777 -0.0020671943 -0.0055263927 -0.006097896 -0.0071263956 -0.004636851
nested_loop:3197.16 -0.0014433004 -0.0033780243 -0.0050473986 -0.002904158 0.0033509051 -0.0029211277 0.0065454496 0.0011984324 -0.005658062 0.0073701553 0.0059618847 0.0042916266 -0.0053506605 0.004548968 0.003132104 0.0040510697 0.003324923 0.0015154332 -0.0024766894 0.0065264413 0.0075095156 0.002962971 -0.0022164024 5.5683777e-06 0.0009522019 -0.006608066 -0.006424957 -0.000180481 0.0009666309 -0.0044870162 -0.0036916202 -0.0057391208 0.006506731 9.4763935e-05 -0.003522968 0.004454457 0.007171887 -0.003203025 0.0062224073 0.004199558 0.004593065 0.00040046126 0.0064164717 -0.0054836255 -0.0064395918 0.0072651207 -0.0001544226 -0.0015369346 0.0035965862 -0.0031994656 0.002143058 0.005421849 0.004738614 -0.005867808 0.0073299613 0.0036498504 0.0030985316 -0.0048777387 0.006609359 -0.0016798163 0.006894678 -0.0041890647 -0.0063511087 0.0053316867 0.0013056193 -0.0017175851 0.007432501 0.0074170744 -0.0076359743 0.0019572098 0.004809916 0.0030253567 0.0015803026 0.00033632945 0.00052627455 -0.002984872 -0.0055783205 -0.0016319314 0.003065545 0.0068895966 0.007233711 -0.0046687005 -0.0073458366 0.0076284194 0.0026795194 0.004036029 0.004908082 -0.0021908302 0.005720862 0.0022111498 0.0022429721 -0.001859664 -0.002443945 -0.0018516732 0.003340966 5.9420243e-05 -0.007487718 -0.0075512063 -0.0048032766 -0.000100445 0.0015604813 0.007368725 0.004362774 -0.0033521065 0.00021743495 0.0038784053 0.0060143042 -0.0008939244 0.0033776723 -0.004542484 -0.00062827393 0.0063281646 -0.0018438008 -0.0075495746 0.004515047 -0.0030701738 -0.0009553693 0.0077972794 -0.0017627738 -0.0037164567 -0.0041635837 0.0054538203 -0.0044600563 0.0016512992 -0.0041059842 0.004781808 0.003404146 0.0020362148
